digraph Tree {
node [shape=box, style="rounded", color="black", fontname=helvetica] ;
edge [fontname=helvetica] ;
0 [label="sub_grade_A5 <= 2.0\ngini = 0.3\nsamples = 593159\nvalue = [763343, 175194]"] ;
1 [label="sub_grade_B1 <= 2.0\ngini = 0.3\nsamples = 562526\nvalue = [718531, 171402]"] ;
0 -> 1 [labeldistance=2.5, labelangle=45, headlabel="True"] ;
2 [label="term <= 0.6\ngini = 0.3\nsamples = 531656\nvalue = [674582, 166727]"] ;
1 -> 2 ;
3 [label="fico_score <= 0.1\ngini = 0.3\nsamples = 391111\nvalue = [525952, 93169]"] ;
2 -> 3 ;
4 [label="dti <= 0.3\ngini = 0.3\nsamples = 254096\nvalue = [329824, 72132]"] ;
3 -> 4 ;
5 [label="sub_grade_B2 <= 1.9\ngini = 0.3\nsamples = 157151\nvalue = [209399, 39348]"] ;
4 -> 5 ;
6 [label="gini = 0.3\nsamples = 144863\nvalue = [191740, 37404]"] ;
5 -> 6 ;
7 [label="gini = 0.2\nsamples = 12288\nvalue = [17659, 1944]"] ;
5 -> 7 ;
8 [label="home_ownership_RENT <= 0.2\ngini = 0.3\nsamples = 96945\nvalue = [120425, 32784]"] ;
4 -> 8 ;
9 [label="gini = 0.3\nsamples = 51675\nvalue = [66224, 15453]"] ;
8 -> 9 ;
10 [label="gini = 0.4\nsamples = 45270\nvalue = [54201, 17331]"] ;
8 -> 10 ;
11 [label="home_ownership_RENT <= 0.2\ngini = 0.2\nsamples = 137015\nvalue = [196128, 21037]"] ;
3 -> 11 ;
12 [label="fico_score <= 1.1\ngini = 0.2\nsamples = 87351\nvalue = [126835, 11516]"] ;
11 -> 12 ;
13 [label="gini = 0.2\nsamples = 51816\nvalue = [73414, 8563]"] ;
12 -> 13 ;
14 [label="gini = 0.1\nsamples = 35535\nvalue = [53421, 2953]"] ;
12 -> 14 ;
15 [label="fico_score <= 1.1\ngini = 0.2\nsamples = 49664\nvalue = [69293, 9521]"] ;
11 -> 15 ;
16 [label="gini = 0.2\nsamples = 33046\nvalue = [45313, 7276]"] ;
15 -> 16 ;
17 [label="gini = 0.2\nsamples = 16618\nvalue = [23980, 2245]"] ;
15 -> 17 ;
18 [label="loan_amnt <= 1.2\ngini = 0.4\nsamples = 140545\nvalue = [148630, 73558]"] ;
2 -> 18 ;
19 [label="sub_grade_A4 <= 2.3\ngini = 0.4\nsamples = 102187\nvalue = [106554, 55185]"] ;
18 -> 19 ;
20 [label="sub_grade_B3 <= 1.8\ngini = 0.5\nsamples = 101841\nvalue = [106048, 55138]"] ;
19 -> 20 ;
21 [label="gini = 0.5\nsamples = 98359\nvalue = [101465, 54206]"] ;
20 -> 21 ;
22 [label="gini = 0.3\nsamples = 3482\nvalue = [4583, 932]"] ;
20 -> 22 ;
23 [label="mo_sin_old_il_acct <= -0.1\ngini = 0.2\nsamples = 346\nvalue = [506, 47]"] ;
19 -> 23 ;
24 [label="gini = 0.3\nsamples = 67\nvalue = [90, 21]"] ;
23 -> 24 ;
25 [label="gini = 0.1\nsamples = 279\nvalue = [416, 26]"] ;
23 -> 25 ;
26 [label="sub_grade_E2 <= 3.7\ngini = 0.4\nsamples = 38358\nvalue = [42076, 18373]"] ;
18 -> 26 ;
27 [label="fico_score <= -0.1\ngini = 0.4\nsamples = 36252\nvalue = [39945, 17085]"] ;
26 -> 27 ;
28 [label="gini = 0.5\nsamples = 17135\nvalue = [17157, 9769]"] ;
27 -> 28 ;
29 [label="gini = 0.4\nsamples = 19117\nvalue = [22788, 7316]"] ;
27 -> 29 ;
30 [label="annual_inc <= 0.9\ngini = 0.5\nsamples = 2106\nvalue = [2131, 1288]"] ;
26 -> 30 ;
31 [label="gini = 0.5\nsamples = 1416\nvalue = [1341, 943]"] ;
30 -> 31 ;
32 [label="gini = 0.4\nsamples = 690\nvalue = [790, 345]"] ;
30 -> 32 ;
33 [label="addr_state_NV <= 4.1\ngini = 0.2\nsamples = 30870\nvalue = [43949, 4675]"] ;
1 -> 33 ;
34 [label="term <= 0.6\ngini = 0.2\nsamples = 30429\nvalue = [43347, 4589]"] ;
33 -> 34 ;
35 [label="addr_state_LA <= 4.5\ngini = 0.2\nsamples = 27470\nvalue = [39407, 3891]"] ;
34 -> 35 ;
36 [label="home_ownership_RENT <= 0.2\ngini = 0.2\nsamples = 27182\nvalue = [39003, 3823]"] ;
35 -> 36 ;
37 [label="gini = 0.1\nsamples = 16596\nvalue = [24075, 2086]"] ;
36 -> 37 ;
38 [label="gini = 0.2\nsamples = 10586\nvalue = [14928, 1737]"] ;
36 -> 38 ;
39 [label="mort_acc <= -0.6\ngini = 0.2\nsamples = 288\nvalue = [404, 68]"] ;
35 -> 39 ;
40 [label="gini = 0.2\nsamples = 85\nvalue = [133, 12]"] ;
39 -> 40 ;
41 [label="gini = 0.3\nsamples = 203\nvalue = [271, 56]"] ;
39 -> 41 ;
42 [label="annual_inc <= 2.9\ngini = 0.3\nsamples = 2959\nvalue = [3940, 698]"] ;
34 -> 42 ;
43 [label="int_rate <= -0.8\ngini = 0.3\nsamples = 2941\nvalue = [3924, 686]"] ;
42 -> 43 ;
44 [label="gini = 0.3\nsamples = 2361\nvalue = [3094, 609]"] ;
43 -> 44 ;
45 [label="gini = 0.2\nsamples = 580\nvalue = [830, 77]"] ;
43 -> 45 ;
46 [label="addr_state_NC <= 2.9\ngini = 0.5\nsamples = 18\nvalue = [16, 12]"] ;
42 -> 46 ;
47 [label="gini = 0.5\nsamples = 17\nvalue = [15, 12]"] ;
46 -> 47 ;
48 [label="gini = 0.0\nsamples = 1\nvalue = [1, 0]"] ;
46 -> 48 ;
49 [label="annual_inc <= 0.6\ngini = 0.2\nsamples = 441\nvalue = [602, 86]"] ;
33 -> 49 ;
50 [label="dti <= -0.5\ngini = 0.3\nsamples = 331\nvalue = [440, 77]"] ;
49 -> 50 ;
51 [label="pub_rec <= 0.6\ngini = 0.1\nsamples = 121\nvalue = [173, 12]"] ;
50 -> 51 ;
52 [label="gini = 0.1\nsamples = 87\nvalue = [128, 10]"] ;
51 -> 52 ;
53 [label="gini = 0.1\nsamples = 34\nvalue = [45, 2]"] ;
51 -> 53 ;
54 [label="verification_status_Verified <= 0.4\ngini = 0.3\nsamples = 210\nvalue = [267, 65]"] ;
50 -> 54 ;
55 [label="gini = 0.3\nsamples = 171\nvalue = [223, 43]"] ;
54 -> 55 ;
56 [label="gini = 0.4\nsamples = 39\nvalue = [44, 22]"] ;
54 -> 56 ;
57 [label="purpose_credit_card <= 0.6\ngini = 0.1\nsamples = 110\nvalue = [162, 9]"] ;
49 -> 57 ;
58 [label="loan_amnt <= -0.5\ngini = 0.1\nsamples = 79\nvalue = [113, 8]"] ;
57 -> 58 ;
59 [label="gini = 0.2\nsamples = 26\nvalue = [40, 5]"] ;
58 -> 59 ;
60 [label="gini = 0.1\nsamples = 53\nvalue = [73, 3]"] ;
58 -> 60 ;
61 [label="open_acc <= 2.3\ngini = 0.0\nsamples = 31\nvalue = [49, 1]"] ;
57 -> 61 ;
62 [label="gini = 0.0\nsamples = 30\nvalue = [49, 0]"] ;
61 -> 62 ;
63 [label="gini = 0.0\nsamples = 1\nvalue = [0, 1]"] ;
61 -> 63 ;
64 [label="fico_score <= 0.1\ngini = 0.1\nsamples = 30633\nvalue = [44812, 3792]"] ;
0 -> 64 [labeldistance=2.5, labelangle=-45, headlabel="False"] ;
65 [label="fico_score <= -0.9\ngini = 0.2\nsamples = 11136\nvalue = [16092, 1503]"] ;
64 -> 65 ;
66 [label="pub_rec <= 2.6\ngini = 0.2\nsamples = 1578\nvalue = [2208, 243]"] ;
65 -> 66 ;
67 [label="purpose_other <= 2.1\ngini = 0.2\nsamples = 1472\nvalue = [2044, 239]"] ;
66 -> 67 ;
68 [label="purpose_debt_consolidation <= -0.2\ngini = 0.2\nsamples = 1451\nvalue = [2013, 239]"] ;
67 -> 68 ;
69 [label="gini = 0.2\nsamples = 761\nvalue = [1066, 142]"] ;
68 -> 69 ;
70 [label="gini = 0.2\nsamples = 690\nvalue = [947, 97]"] ;
68 -> 70 ;
71 [label="gini = 0.0\nsamples = 21\nvalue = [31, 0]"] ;
67 -> 71 ;
72 [label="dti <= -1.0\ngini = 0.0\nsamples = 106\nvalue = [164, 4]"] ;
66 -> 72 ;
73 [label="loan_amnt <= -1.2\ngini = 0.1\nsamples = 30\nvalue = [40, 3]"] ;
72 -> 73 ;
74 [label="gini = 0.5\nsamples = 4\nvalue = [3, 2]"] ;
73 -> 74 ;
75 [label="gini = 0.1\nsamples = 26\nvalue = [37, 1]"] ;
73 -> 75 ;
76 [label="loan_amnt <= -1.0\ngini = 0.0\nsamples = 76\nvalue = [124, 1]"] ;
72 -> 76 ;
77 [label="gini = 0.1\nsamples = 19\nvalue = [32, 1]"] ;
76 -> 77 ;
78 [label="gini = 0.0\nsamples = 57\nvalue = [92, 0]"] ;
76 -> 78 ;
79 [label="emp_length <= -0.7\ngini = 0.2\nsamples = 9558\nvalue = [13884, 1260]"] ;
65 -> 79 ;
80 [label="revol_util <= 3.0\ngini = 0.1\nsamples = 3085\nvalue = [4527, 383]"] ;
79 -> 80 ;
81 [label="revol_util <= 1.7\ngini = 0.1\nsamples = 3084\nvalue = [4527, 381]"] ;
80 -> 81 ;
82 [label="gini = 0.1\nsamples = 3016\nvalue = [4430, 364]"] ;
81 -> 82 ;
83 [label="gini = 0.3\nsamples = 68\nvalue = [97, 17]"] ;
81 -> 83 ;
84 [label="gini = 0.0\nsamples = 1\nvalue = [0, 2]"] ;
80 -> 84 ;
85 [label="annual_inc <= -3.7\ngini = 0.2\nsamples = 6473\nvalue = [9357, 877]"] ;
79 -> 85 ;
86 [label="gini = 0.0\nsamples = 1\nvalue = [0, 3]"] ;
85 -> 86 ;
87 [label="purpose_major_purchase <= 3.4\ngini = 0.2\nsamples = 6472\nvalue = [9357, 874]"] ;
85 -> 87 ;
88 [label="gini = 0.2\nsamples = 6385\nvalue = [9237, 856]"] ;
87 -> 88 ;
89 [label="gini = 0.2\nsamples = 87\nvalue = [120, 18]"] ;
87 -> 89 ;
90 [label="dti <= -0.2\ngini = 0.1\nsamples = 19497\nvalue = [28720, 2289]"] ;
64 -> 90 ;
91 [label="annual_inc <= -3.9\ngini = 0.1\nsamples = 9866\nvalue = [14673, 1028]"] ;
90 -> 91 ;
92 [label="gini = 0.0\nsamples = 1\nvalue = [0, 3]"] ;
91 -> 92 ;
93 [label="revol_bal <= -1.3\ngini = 0.1\nsamples = 9865\nvalue = [14673, 1025]"] ;
91 -> 93 ;
94 [label="revol_bal <= -1.3\ngini = 0.2\nsamples = 916\nvalue = [1291, 132]"] ;
93 -> 94 ;
95 [label="gini = 0.2\nsamples = 915\nvalue = [1291, 130]"] ;
94 -> 95 ;
96 [label="gini = 0.0\nsamples = 1\nvalue = [0, 2]"] ;
94 -> 96 ;
97 [label="annual_inc <= -2.0\ngini = 0.1\nsamples = 8949\nvalue = [13382, 893]"] ;
93 -> 97 ;
98 [label="gini = 0.3\nsamples = 81\nvalue = [94, 22]"] ;
97 -> 98 ;
99 [label="gini = 0.1\nsamples = 8868\nvalue = [13288, 871]"] ;
97 -> 99 ;
100 [label="annual_inc <= -2.0\ngini = 0.2\nsamples = 9631\nvalue = [14047, 1261]"] ;
90 -> 100 ;
101 [label="revol_util <= -1.3\ngini = 0.3\nsamples = 138\nvalue = [178, 46]"] ;
100 -> 101 ;
102 [label="open_acc <= 0.3\ngini = 0.2\nsamples = 41\nvalue = [57, 7]"] ;
101 -> 102 ;
103 [label="gini = 0.1\nsamples = 30\nvalue = [49, 2]"] ;
102 -> 103 ;
104 [label="gini = 0.5\nsamples = 11\nvalue = [8, 5]"] ;
102 -> 104 ;
105 [label="revol_bal <= -1.2\ngini = 0.4\nsamples = 97\nvalue = [121, 39]"] ;
101 -> 105 ;
106 [label="gini = 0.2\nsamples = 3\nvalue = [1, 6]"] ;
105 -> 106 ;
107 [label="gini = 0.3\nsamples = 94\nvalue = [120, 33]"] ;
105 -> 107 ;
108 [label="home_ownership_RENT <= 0.2\ngini = 0.1\nsamples = 9493\nvalue = [13869, 1215]"] ;
100 -> 108 ;
109 [label="addr_state_MN <= 3.6\ngini = 0.1\nsamples = 6491\nvalue = [9582, 761]"] ;
108 -> 109 ;
110 [label="gini = 0.1\nsamples = 6356\nvalue = [9386, 733]"] ;
109 -> 110 ;
111 [label="gini = 0.2\nsamples = 135\nvalue = [196, 28]"] ;
109 -> 111 ;
112 [label="emp_length <= 1.0\ngini = 0.2\nsamples = 3002\nvalue = [4287, 454]"] ;
108 -> 112 ;
113 [label="gini = 0.2\nsamples = 2299\nvalue = [3274, 311]"] ;
112 -> 113 ;
114 [label="gini = 0.2\nsamples = 703\nvalue = [1013, 143]"] ;
112 -> 114 ;
}